<?xml version="1.0"?>
<opencv_storage>
<cascade>
  <stageType>BOOST</stageType>
  <featureType>LBP</featureType>
  <height>50</height>
  <width>50</width>
  <stageParams>
    <boostType>GAB</boostType>
    <minHitRate>9.9000000953674316e-01</minHitRate>
    <maxFalseAlarm>5.0000000000000000e-01</maxFalseAlarm>
    <weightTrimRate>9.4999999999999996e-01</weightTrimRate>
    <maxDepth>1</maxDepth>
    <maxWeakCount>100</maxWeakCount></stageParams>
  <featureParams>
    <maxCatCount>256</maxCatCount>
    <featSize>1</featSize></featureParams>
  <stageNum>15</stageNum>
  <stages>
    <!-- stage 0 -->
    <_>
      <maxWeakCount>3</maxWeakCount>
      <stageThreshold>-9.8242759704589844e-01</stageThreshold>
      <weakClassifiers>
        <_>
          <internalNodes>
            0 -1 21 -9175553 -48948943 2131842431 1566511189 -1174358017
            -78000063 2032155455 1476601963</internalNodes>
          <leafValues>
            -8.1765347719192505e-01 5.7562845945358276e-01</leafValues></_>
        <_>
          <internalNodes>
            0 -1 46 353440253 1406226517 151060767 359223763 967649439
            -1074113477 771824383 -1080295425</internalNodes>
          <leafValues>
            -6.5789705514907837e-01 5.6019383668899536e-01</leafValues></_>
        <_>
          <internalNodes>
            0 -1 22 -552537648 -15298384 -787459620 1432703040 -83860486
            -105377360 1879108314 1930906815</internalNodes>
          <leafValues>
            -6.8719708919525146e-01 4.9312290549278259e-01</leafValues></_></weakClassifiers></_>
    <!-- stage 1 -->
    <_>
      <maxWeakCount>4</maxWeakCount>
      <stageThreshold>-1.4948072433471680e+00</stageThreshold>
      <weakClassifiers>
        <_>
          <internalNodes>
            0 -1 53 -8388737 1935388691 1365618975 2135891739 -418659361
            460001555 1544174559 1260062731</internalNodes>
          <leafValues>
            -7.7136170864105225e-01 4.2451715469360352e-01</leafValues></_>
        <_>
          <internalNodes>
            0 -1 6 -8926193 2136688403 -696137669 -110903073 1393640452
            1375879203 1594255935 1934874455</internalNodes>
          <leafValues>
            -7.1686261892318726e-01 4.3270549178123474e-01</leafValues></_>
        <_>
          <internalNodes>
            0 -1 116 -688917761 307605687 -254782475 289755153
            1275841195 537542658 3754747 1078982375</internalNodes>
          <leafValues>
            -5.7098525762557983e-01 4.5800152420997620e-01</leafValues></_>
        <_>
          <internalNodes>
            0 -1 67 -567807181 1497051185 -65290085 -211861474
            1795326106 523128886 216762511 974051466</internalNodes>
          <leafValues>
            -6.3147652149200439e-01 4.0868365764617920e-01</leafValues></_></weakClassifiers></_>
    <!-- stage 2 -->
    <_>
      <maxWeakCount>6</maxWeakCount>
      <stageThreshold>-7.9405397176742554e-01</stageThreshold>
      <weakClassifiers>
        <_>
          <internalNodes>
            0 -1 41 -10616833 -10660579 2049046015 -10931139 -83968069
            -1104664313 336376767 153991871</internalNodes>
          <leafValues>
            -6.6066640615463257e-01 3.3145841956138611e-01</leafValues></_>
        <_>
          <internalNodes>
            0 -1 14 -11582380 -41593953 -745191303 1071583903 1573536836
            1568693075 -53028609 1541406719</internalNodes>
          <leafValues>
            -6.9035691022872925e-01 3.2103043794631958e-01</leafValues></_>
        <_>
          <internalNodes>
            0 -1 86 -1221348429 -1222399198 -1254114509 -13633613
            -1124156485 -1094785298 1021094831 -1163213654</internalNodes>
          <leafValues>
            -4.5981955528259277e-01 4.7746032476425171e-01</leafValues></_>
        <_>
          <internalNodes>
            0 -1 121 -1399915785 33571861 -1601689199 219987223
            210801405 799624539 19439326 231731691</internalNodes>
          <leafValues>
            -5.1511430740356445e-01 3.9534643292427063e-01</leafValues></_>
        <_>
          <internalNodes>
            0 -1 7 -545271990 1916498498 1902634287 -57152946 -792325818
            1076903955 2132433723 1984293843</internalNodes>
          <leafValues>
            -6.4216655492782593e-01 2.8644391894340515e-01</leafValues></_>
        <_>
          <internalNodes>
            0 -1 35 -218047014 -703102588 298245005 -10203132
            -1617378930 -79426993 -1173828402 2113958927</internalNodes>
          <leafValues>
            -6.0228133201599121e-01 3.5573795437812805e-01</leafValues></_></weakClassifiers></_>
    <!-- stage 3 -->
    <_>
      <maxWeakCount>7</maxWeakCount>
      <stageThreshold>-1.0500715970993042e+00</stageThreshold>
      <weakClassifiers>
        <_>
          <internalNodes>
            0 -1 93 521484255 1064245523 1975148501 2104457499
            -341849345 -1086332677 -1587633426 -4474437</internalNodes>
          <leafValues>
            -6.3382411003112793e-01 3.1782945990562439e-01</leafValues></_>
        <_>
          <internalNodes>
            0 -1 25 1473242058 -1290544065 -785182589 -683975727
            1357070504 -307987569 2035181518 -106201090</internalNodes>
          <leafValues>
            -4.8439499735832214e-01 3.9605370163917542e-01</leafValues></_>
        <_>
          <internalNodes>
            0 -1 26 893473749 321078800 1843597279 397242580 438046908
            1071261773 535106143 1006545907</internalNodes>
          <leafValues>
            -6.2329626083374023e-01 2.9783448576927185e-01</leafValues></_>
        <_>
          <internalNodes>
            0 -1 100 -743973942 -16547808 -1860057037 -687352829
            -1739433029 -133789557 -1328272733 -2012569054</internalNodes>
          <leafValues>
            -4.7272652387619019e-01 4.1464924812316895e-01</leafValues></_>
        <_>
          <internalNodes>
            0 -1 63 -1190601480 -1115090772 -855614995 -50233151
            -1448424790 -74479422 -1425916961 -1189669701</internalNodes>
          <leafValues>
            -4.5112702250480652e-01 4.0920099616050720e-01</leafValues></_>
        <_>
          <internalNodes>
            0 -1 104 -104869150 1968321794 353436420 1970215298
            -125153400 862128497 400900375 -168827989</internalNodes>
          <leafValues>
            -4.6669867634773254e-01 3.8546460866928101e-01</leafValues></_>
        <_>
          <internalNodes>
            0 -1 71 -45821708 -181108644 1996869949 -171091580 -91424050
            -1685198720 814780847 562940332</internalNodes>
          <leafValues>
            -5.5542451143264771e-01 3.4938398003578186e-01</leafValues></_></weakClassifiers></_>
    <!-- stage 4 -->
    <_>
      <maxWeakCount>8</maxWeakCount>
      <stageThreshold>-1.5537772178649902e+00</stageThreshold>
      <weakClassifiers>
        <_>
          <internalNodes>
            0 -1 1 -264244321 1914168151 1073832739 1624458223 539447651
            811425953 1618443103 2004320111</internalNodes>
          <leafValues>
            -6.9963032007217407e-01 2.0912806689739227e-01</leafValues></_>
        <_>
          <internalNodes>
            0 -1 17 -581704193 -9102983 1030970847 2113787895 -59196229
            2065912086 808446911 933231123</internalNodes>
          <leafValues>
            -5.1208925247192383e-01 3.7858524918556213e-01</leafValues></_>
        <_>
          <internalNodes>
            0 -1 50 454496371 -159981033 688084447 -2070948737 193003539
            -1629612493 1057698587 -268437505</internalNodes>
          <leafValues>
            -5.7355344295501709e-01 3.0889752507209778e-01</leafValues></_>
        <_>
          <internalNodes>
            0 -1 13 -134224825 2136887311 358175878 437207103 1314866508
            1562446889 2078990154 592401971</internalNodes>
          <leafValues>
            -5.0077420473098755e-01 3.6237865686416626e-01</leafValues></_>
        <_>
          <internalNodes>
            0 -1 119 -534119436 134664581 -1945579237 210303287
            684656831 549525833 1084978858 1169122927</internalNodes>
          <leafValues>
            -5.4797464609146118e-01 3.2093203067779541e-01</leafValues></_>
        <_>
          <internalNodes>
            0 -1 89 -383940086 1896065294 289735551 -7371933 1458348991
            741562398 1925956031 1431281883</internalNodes>
          <leafValues>
            -5.0398540496826172e-01 3.5023874044418335e-01</leafValues></_>
        <_>
          <internalNodes>
            0 -1 24 -1847272737 -749217663 1844825331 1945780514
            -1992709462 205282775 -2135849253 -418290177</internalNodes>
          <leafValues>
            -3.9780965447425842e-01 4.4459500908851624e-01</leafValues></_>
        <_>
          <internalNodes>
            0 -1 111 -947404837 1113241467 1501631056 1751267073
            1726212515 1079322934 1402687216 285212379</internalNodes>
          <leafValues>
            -4.8629984259605408e-01 3.5982438921928406e-01</leafValues></_></weakClassifiers></_>
    <!-- stage 5 -->
    <_>
      <maxWeakCount>8</maxWeakCount>
      <stageThreshold>-9.8668062686920166e-01</stageThreshold>
      <weakClassifiers>
        <_>
          <internalNodes>
            0 -1 82 2132214039 -217108480 1175352095 2008806203
            -120088353 -285225313 -500646917 -340017221</internalNodes>
          <leafValues>
            -5.4706496000289917e-01 3.0391713976860046e-01</leafValues></_>
        <_>
          <internalNodes>
            0 -1 45 286609685 322805717 489098235 995053949 1748505738
            -388839 1538924543 -308395075</internalNodes>
          <leafValues>
            -5.0618696212768555e-01 3.2186788320541382e-01</leafValues></_>
        <_>
          <internalNodes>
            0 -1 27 -41904644 -1126178568 1552195037 -11035136
            -1124017669 -1103920935 343992511 -1891434229</internalNodes>
          <leafValues>
            -4.1177299618721008e-01 3.8063004612922668e-01</leafValues></_>
        <_>
          <internalNodes>
            0 -1 30 -987373142 -715565107 -572238915 -983747599
            493602688 416117435 -611333745 956005280</internalNodes>
          <leafValues>
            -4.9894523620605469e-01 2.9907041788101196e-01</leafValues></_>
        <_>
          <internalNodes>
            0 -1 113 -2010452258 193704712 1334264372 -1412435520
            -34742305 260865964 2127446771 1987570669</internalNodes>
          <leafValues>
            -4.9460443854331970e-01 3.2053145766258240e-01</leafValues></_>
        <_>
          <internalNodes>
            0 -1 65 67552017 8045631 -875902601 1930092566 1947238640
            839320610 250452734 1000300477</internalNodes>
          <leafValues>
            -6.4069080352783203e-01 2.4943719804286957e-01</leafValues></_>
        <_>
          <internalNodes>
            0 -1 18 -214021092 -482155805 -552703407 -627704729
            2036354288 -384245521 -228064576 -50451667</internalNodes>
          <leafValues>
            -5.6240773200988770e-01 2.4067404866218567e-01</leafValues></_>
        <_>
          <internalNodes>
            0 -1 56 1534127820 -539774511 -587046947 2112024432
            -1201254994 -392516129 1886553484 808628494</internalNodes>
          <leafValues>
            -6.0863602161407471e-01 2.4396191537380219e-01</leafValues></_></weakClassifiers></_>
    <!-- stage 6 -->
    <_>
      <maxWeakCount>9</maxWeakCount>
      <stageThreshold>-1.1250919103622437e+00</stageThreshold>
      <weakClassifiers>
        <_>
          <internalNodes>
            0 -1 44 286601727 -155756975 2030386027 -1078081841
            -1349910337 -1076141826 535630687 -7537</internalNodes>
          <leafValues>
            -5.6769055128097534e-01 2.4238733947277069e-01</leafValues></_>
        <_>
          <internalNodes>
            0 -1 42 -679492694 -790715779 1350765515 -648259595
            1401848522 -52868264 -1077179442 -1065679956</internalNodes>
          <leafValues>
            -4.9796709418296814e-01 2.9458308219909668e-01</leafValues></_>
        <_>
          <internalNodes>
            0 -1 77 -10493069 892666371 303707967 1034937375 -137239297
            809912130 -504314369 -252775793</internalNodes>
          <leafValues>
            -3.8392376899719238e-01 3.8591068983078003e-01</leafValues></_>
        <_>
          <internalNodes>
            0 -1 8 -69252026 1600059467 -654682087 -1372358649
            2102280512 2083334669 775576155 575074011</internalNodes>
          <leafValues>
            -6.5252500772476196e-01 2.6684743165969849e-01</leafValues></_>
        <_>
          <internalNodes>
            0 -1 75 -1682946952 2136806877 -1929059299 -3713391
            -1145534227 -337114966 797157791 -1120792323</internalNodes>
          <leafValues>
            -4.3191584944725037e-01 3.2722571492195129e-01</leafValues></_>
        <_>
          <internalNodes>
            0 -1 105 -305860950 -1811332959 1665286159 -218054590
            1538062221 1095420694 599737171 -587247909</internalNodes>
          <leafValues>
            -4.0035554766654968e-01 3.5180756449699402e-01</leafValues></_>
        <_>
          <internalNodes>
            0 -1 73 -1294232325 -551345495 925138179 1359339359
            -212520895 -1579822381 -821610609 -571473985</internalNodes>
          <leafValues>
            -3.4503552317619324e-01 4.2733895778656006e-01</leafValues></_>
        <_>
          <internalNodes>
            0 -1 28 -1760319063 -724181569 -628259933 -1247985705
            -1466759424 482634635 -1048147742 539572970</internalNodes>
          <leafValues>
            -5.7096785306930542e-01 2.5667357444763184e-01</leafValues></_>
        <_>
          <internalNodes>
            0 -1 49 981146707 -1676170753 -1315012683 1557085327
            873469000 -1138877443 2077969289 -378846107</internalNodes>
          <leafValues>
            -4.2126923799514771e-01 3.4595611691474915e-01</leafValues></_></weakClassifiers></_>
    <!-- stage 7 -->
    <_>
      <maxWeakCount>8</maxWeakCount>
      <stageThreshold>-1.4447330236434937e+00</stageThreshold>
      <weakClassifiers>
        <_>
          <internalNodes>
            0 -1 84 -142929071 -14173435 2000621847 -207890677
            -498883135 -225452334 -749830897 -607456369</internalNodes>
          <leafValues>
            -4.8701298236846924e-01 2.9702970385551453e-01</leafValues></_>
        <_>
          <internalNodes>
            0 -1 15 -2630305 -641741139 -1258219245 1040683779
            2003129680 -955818230 1887428271 614465174</internalNodes>
          <leafValues>
            -4.8308518528938293e-01 2.9557597637176514e-01</leafValues></_>
        <_>
          <internalNodes>
            0 -1 81 424171736 1574444280 -1748664907 -13939507
            -1458898533 -67191897 -1136985137 -1691139938</internalNodes>
          <leafValues>
            -4.3509647250175476e-01 3.3045828342437744e-01</leafValues></_>
        <_>
          <internalNodes>
            0 -1 38 1909703338 1458684016 974590496 1125645721
            1134920362 -226063462 1725162158 1139486347</internalNodes>
          <leafValues>
            -4.5897710323333740e-01 3.2178854942321777e-01</leafValues></_>
        <_>
          <internalNodes>
            0 -1 59 -802453217 -707084769 687984601 -1060308569
            483985155 -665947880 1463366425 -973085441</internalNodes>
          <leafValues>
            -4.2711675167083740e-01 3.1608051061630249e-01</leafValues></_>
        <_>
          <internalNodes>
            0 -1 101 -50997798 -125021174 1611490923 -267401821
            -231020356 -1573248086 -1565613905 554554543</internalNodes>
          <leafValues>
            -5.1262569427490234e-01 2.6746210455894470e-01</leafValues></_>
        <_>
          <internalNodes>
            0 -1 124 -2081488962 109752720 -2120367944 -2033528640
            -1353325403 587454979 -1442080544 -1428306987</internalNodes>
          <leafValues>
            -4.2708820104598999e-01 3.1229525804519653e-01</leafValues></_>
        <_>
          <internalNodes>
            0 -1 66 -151758851 -979537939 -1390339945 -1075688115
            -896992567 -1454727037 -1078936135 796421100</internalNodes>
          <leafValues>
            -6.3002473115921021e-01 2.2146108746528625e-01</leafValues></_></weakClassifiers></_>
    <!-- stage 8 -->
    <_>
      <maxWeakCount>10</maxWeakCount>
      <stageThreshold>-8.6984479427337646e-01</stageThreshold>
      <weakClassifiers>
        <_>
          <internalNodes>
            0 -1 115 -8412942 -713694768 1664165888 -210898671
            -871404466 1254189323 2145321479 -134285461</internalNodes>
          <leafValues>
            -4.9255797266960144e-01 2.3654454946517944e-01</leafValues></_>
        <_>
          <internalNodes>
            0 -1 19 1426323421 2132492793 486874015 -1415851286
            675299548 2130413721 2073905567 -286270535</internalNodes>
          <leafValues>
            -3.9111834764480591e-01 3.4916168451309204e-01</leafValues></_>
        <_>
          <internalNodes>
            0 -1 87 -172514381 536875563 609980943 655356170 -66061058
            70199999 854065039 583983599</internalNodes>
          <leafValues>
            -5.6516420841217041e-01 2.3002651333808899e-01</leafValues></_>
        <_>
          <internalNodes>
            0 -1 94 -1148473184 991137498 824359445 1057077642 829399464
            318769697 -653221432 1564474074</internalNodes>
          <leafValues>
            -4.9440178275108337e-01 2.7081167697906494e-01</leafValues></_>
        <_>
          <internalNodes>
            0 -1 57 -1288122662 -1215231915 110031253 395783429
            -1299649330 -20205411 279490751 -1087958802</internalNodes>
          <leafValues>
            -3.6974087357521057e-01 3.6177325248718262e-01</leafValues></_>
        <_>
          <internalNodes>
            0 -1 98 -669986336 -693104360 277893564 478227597 949130389
            -1677721344 163914938 -1142210977</internalNodes>
          <leafValues>
            -3.7944611907005310e-01 3.4114071726799011e-01</leafValues></_>
        <_>
          <internalNodes>
            0 -1 40 -792468502 496077130 -1048522871 252038295
            -1368108408 -1716955025 1811674088 -1389544727</internalNodes>
          <leafValues>
            -4.3286812305450439e-01 2.9253941774368286e-01</leafValues></_>
        <_>
          <internalNodes>
            0 -1 51 -193261519 397351167 523639603 -1198050389
            -1947333896 992676363 -85008977 581664235</internalNodes>
          <leafValues>
            -4.7821512818336487e-01 2.8574770689010620e-01</leafValues></_>
        <_>
          <internalNodes>
            0 -1 3 -2104724 -981015800 -891230588 -1124828634 1760313436
            -1466021756 -306296306 -338803074</internalNodes>
          <leafValues>
            -4.2895773053169250e-01 2.9201459884643555e-01</leafValues></_>
        <_>
          <internalNodes>
            0 -1 52 -1893705574 -323134052 -123675419 1474590005
            -1978136324 -1378387755 -2113267987 17237631</internalNodes>
          <leafValues>
            -5.1469063758850098e-01 2.6936000585556030e-01</leafValues></_></weakClassifiers></_>
    <!-- stage 9 -->
    <_>
      <maxWeakCount>10</maxWeakCount>
      <stageThreshold>-1.3660215139389038e+00</stageThreshold>
      <weakClassifiers>
        <_>
          <internalNodes>
            0 -1 72 1060190167 2147431766 -773501441 -100697857
            1791588189 -421041890 197824185 -73688773</internalNodes>
          <leafValues>
            -5.8215546607971191e-01 1.4739069342613220e-01</leafValues></_>
        <_>
          <internalNodes>
            0 -1 92 -2144873225 -2138841968 212027197 -705180018
            -1870558981 313413256 -1208019430 1193016125</internalNodes>
          <leafValues>
            -4.5925065875053406e-01 2.4386447668075562e-01</leafValues></_>
        <_>
          <internalNodes>
            0 -1 110 -142609458 -147104977 -1171036671 -281286901
            -155255026 -1808384245 1701508874 -151066806</internalNodes>
          <leafValues>
            -3.1923025846481323e-01 3.7551787495613098e-01</leafValues></_>
        <_>
          <internalNodes>
            0 -1 5 -76030393 2119398205 1746101794 131987655 1529283333
            1342591220 2052415559 1987575671</internalNodes>
          <leafValues>
            -5.1669460535049438e-01 2.6056778430938721e-01</leafValues></_>
        <_>
          <internalNodes>
            0 -1 69 -583970607 -116332799 788990519 333726285
            -1255100232 -1237282816 701680543 588172367</internalNodes>
          <leafValues>
            -3.8922730088233948e-01 3.1180509924888611e-01</leafValues></_>
        <_>
          <internalNodes>
            0 -1 97 387396407 -947353438 1233561511 -1616170475
            -1830617298 -1145185358 974304043 -1133600728</internalNodes>
          <leafValues>
            -3.5784617066383362e-01 3.6349418759346008e-01</leafValues></_>
        <_>
          <internalNodes>
            0 -1 103 -357840646 -1282576478 290228239 1977565899
            273078922 1171922972 -235797997 -47195937</internalNodes>
          <leafValues>
            -3.6714303493499756e-01 3.4001287817955017e-01</leafValues></_>
        <_>
          <internalNodes>
            0 -1 118 -1795931056 -564897469 -178072609 -859745717
            -395269667 -2000215471 -86705441 673869694</internalNodes>
          <leafValues>
            -5.1062905788421631e-01 2.4962134659290314e-01</leafValues></_>
        <_>
          <internalNodes>
            0 -1 102 -1148978470 1124336778 269963695 1599695019
            1231884672 16776 -1279040645 -819509109</internalNodes>
          <leafValues>
            -4.3127158284187317e-01 2.8404611349105835e-01</leafValues></_>
        <_>
          <internalNodes>
            0 -1 37 2110252970 -1671601956 805355839 -235694792
            -962608658 -436511070 -1751396401 -1887747440</internalNodes>
          <leafValues>
            -3.8436499238014221e-01 3.2888141274452209e-01</leafValues></_></weakClassifiers></_>
    <!-- stage 10 -->
    <_>
      <maxWeakCount>10</maxWeakCount>
      <stageThreshold>-9.5864242315292358e-01</stageThreshold>
      <weakClassifiers>
        <_>
          <internalNodes>
            0 -1 76 1045905407 -9772247 -220868393 -137855611 2128549871
            -393507693 -856764677 -1079074881</internalNodes>
          <leafValues>
            -5.6247299909591675e-01 1.4388230443000793e-01</leafValues></_>
        <_>
          <internalNodes>
            0 -1 78 1916741591 -216795375 976441663 -795813117
            -195849851 -97665211 1891871659 -878053461</internalNodes>
          <leafValues>
            -3.4891521930694580e-01 3.4334549307823181e-01</leafValues></_>
        <_>
          <internalNodes>
            0 -1 48 930027795 -1151918906 -748983457 -11239656 447628036
            -68233197 -783904173 -75609500</internalNodes>
          <leafValues>
            -3.6537098884582520e-01 3.1938955187797546e-01</leafValues></_>
        <_>
          <internalNodes>
            0 -1 12 -883733040 -540458080 1681977316 1198806464
            -339692880 -4683272 1179697149 2002623315</internalNodes>
          <leafValues>
            -5.4000258445739746e-01 2.1604096889495850e-01</leafValues></_>
        <_>
          <internalNodes>
            0 -1 117 713752300 682287328 363031939 12840849 2096759966
            217270669 1938711777 1168068697</internalNodes>
          <leafValues>
            -6.8442976474761963e-01 2.0396018028259277e-01</leafValues></_>
        <_>
          <internalNodes>
            0 -1 23 1994115243 -236486011 1112755401 -221822446
            -2138463840 -1742061543 541373112 21317038</internalNodes>
          <leafValues>
            -4.6417397260665894e-01 2.4722780287265778e-01</leafValues></_>
        <_>
          <internalNodes>
            0 -1 61 -1187506052 -1114091433 -11149347 -552242852
            599396607 -1078855009 -1141655553 -1683618539</internalNodes>
          <leafValues>
            -4.0790340304374695e-01 2.9220312833786011e-01</leafValues></_>
        <_>
          <internalNodes>
            0 -1 112 -178203430 -1171713110 1342455809 1651273450
            3347229 813826443 405612087 1702866319</internalNodes>
          <leafValues>
            -4.3940609693527222e-01 2.6731249690055847e-01</leafValues></_>
        <_>
          <internalNodes>
            0 -1 125 -1986485966 -1933340724 -921832236 -2002098354
            -338961481 -733828984 -1216086076 -1427114292</internalNodes>
          <leafValues>
            -3.8345131278038025e-01 3.2566606998443604e-01</leafValues></_>
        <_>
          <internalNodes>
            0 -1 68 301437907 -566163281 -1253165559 1127183955
            -56925307 -1187534918 -1248373345 -330845282</internalNodes>
          <leafValues>
            -3.3529606461524963e-01 3.8097152113914490e-01</leafValues></_></weakClassifiers></_>
    <!-- stage 11 -->
    <_>
      <maxWeakCount>9</maxWeakCount>
      <stageThreshold>-9.5629394054412842e-01</stageThreshold>
      <weakClassifiers>
        <_>
          <internalNodes>
            0 -1 29 -550564045 -120981519 1551441039 -848199283
            -1194479736 -756019897 1556742042 1869606911</internalNodes>
          <leafValues>
            -5.1223427057266235e-01 1.4461065828800201e-01</leafValues></_>
        <_>
          <internalNodes>
            0 -1 74 890374257 1943485873 1029573119 2141131261 -18839399
            -70515221 984660875 1056864728</internalNodes>
          <leafValues>
            -4.6161314845085144e-01 2.3710216581821442e-01</leafValues></_>
        <_>
          <internalNodes>
            0 -1 62 2064486159 991370541 -548748769 1498199316 992626571
            24067635 238979079 1386279</internalNodes>
          <leafValues>
            -7.4592941999435425e-01 1.5005515515804291e-01</leafValues></_>
        <_>
          <internalNodes>
            0 -1 2 -1128372 2023488079 1350588996 637690826 1803831316
            432234523 2043349036 1812877060</internalNodes>
          <leafValues>
            -5.6146055459976196e-01 2.3015791177749634e-01</leafValues></_>
        <_>
          <internalNodes>
            0 -1 109 -184112670 -182724798 -384619518 -48761087
            -1799433911 -720549321 1673661379 -1257310686</internalNodes>
          <leafValues>
            -4.2088431119918823e-01 2.8495481610298157e-01</leafValues></_>
        <_>
          <internalNodes>
            0 -1 33 -1375723270 -2047541034 -718040229 -1656553052
            -2054507032 983503322 522236089 793773580</internalNodes>
          <leafValues>
            -5.5427998304367065e-01 2.1287266910076141e-01</leafValues></_>
        <_>
          <internalNodes>
            0 -1 54 -282128937 1568337988 75830749 -2143967156 57235223
            -1989781705 1249938159 -515950289</internalNodes>
          <leafValues>
            -4.4175308942794800e-01 2.8042575716972351e-01</leafValues></_>
        <_>
          <internalNodes>
            0 -1 55 -721293118 1566805363 353602602 740256137 1426574489
            1787163227 338211499 -2105574665</internalNodes>
          <leafValues>
            -4.5088297128677368e-01 2.5111201405525208e-01</leafValues></_>
        <_>
          <internalNodes>
            0 -1 108 -790826882 -579185586 -1055199204 -1060285305
            -1342141746 -2108751830 302556979 1363211482</internalNodes>
          <leafValues>
            -4.9258282780647278e-01 2.5494888424873352e-01</leafValues></_></weakClassifiers></_>
    <!-- stage 12 -->
    <_>
      <maxWeakCount>12</maxWeakCount>
      <stageThreshold>-1.3077086210250854e+00</stageThreshold>
      <weakClassifiers>
        <_>
          <internalNodes>
            0 -1 34 1441497993 -158348415 1209138575 1603227909
            -1471618051 -1125442353 -1278149138 1606046363</internalNodes>
          <leafValues>
            -5.4883718490600586e-01 9.4915255904197693e-02</leafValues></_>
        <_>
          <internalNodes>
            0 -1 122 -1430585409 -1349606888 -1878757112 -1482763904
            365875099 722059466 2136731845 -137505887</internalNodes>
          <leafValues>
            -3.4369364380836487e-01 3.0087882280349731e-01</leafValues></_>
        <_>
          <internalNodes>
            0 -1 90 -1068569682 -221819520 304943128 870547778
            -478292859 1426262272 58274906 1934325769</internalNodes>
          <leafValues>
            -4.4606050848960876e-01 2.3920336365699768e-01</leafValues></_>
        <_>
          <internalNodes>
            0 -1 95 -1064052523 1061329181 213212419 -686336229
            1250821291 -90606454 1930630975 -8143989</internalNodes>
          <leafValues>
            -2.6716065406799316e-01 4.0381085872650146e-01</leafValues></_>
        <_>
          <internalNodes>
            0 -1 31 1111744418 1502716543 1363619259 -720550735
            -884365055 -1898890122 -1327838993 1911162256</internalNodes>
          <leafValues>
            -4.7898364067077637e-01 2.2834730148315430e-01</leafValues></_>
        <_>
          <internalNodes>
            0 -1 47 -805236495 277536916 294549115 566956111 -891912027
            -1731951975 1643971103 -1595151953</internalNodes>
          <leafValues>
            -3.4691923856735229e-01 3.4069508314132690e-01</leafValues></_>
        <_>
          <internalNodes>
            0 -1 123 -526424841 1020218171 -755573666 -1306632057
            -127792558 1961718034 -658356536 -532943313</internalNodes>
          <leafValues>
            -3.1343251466751099e-01 3.6333909630775452e-01</leafValues></_>
        <_>
          <internalNodes>
            0 -1 20 2051926830 2145329659 -467936085 -158410944
            180044290 -796162031 -1982440074 -412989121</internalNodes>
          <leafValues>
            -4.1734999418258667e-01 2.8454142808914185e-01</leafValues></_>
        <_>
          <internalNodes>
            0 -1 58 999266504 462381532 -763265930 1498695444 803341446
            -1348590858 -1373853074 -235915596</internalNodes>
          <leafValues>
            -4.7729760408401489e-01 2.2628569602966309e-01</leafValues></_>
        <_>
          <internalNodes>
            0 -1 83 2101684401 -600330454 -835242581 2088725155
            -671631634 -1312936018 1442699150 -71500050</internalNodes>
          <leafValues>
            -3.0868595838546753e-01 4.0212449431419373e-01</leafValues></_>
        <_>
          <internalNodes>
            0 -1 107 229299967 -1416756520 -2097345426 -1790577327
            -6305825 1318127746 -230009609 1475343317</internalNodes>
          <leafValues>
            -3.8796830177307129e-01 3.2377880811691284e-01</leafValues></_>
        <_>
          <internalNodes>
            0 -1 79 723898448 -1254191808 427838845 470141956 -422017896
            -1440634880 64149551 559774983</internalNodes>
          <leafValues>
            -4.8019933700561523e-01 2.4060383439064026e-01</leafValues></_></weakClassifiers></_>
    <!-- stage 13 -->
    <_>
      <maxWeakCount>10</maxWeakCount>
      <stageThreshold>-1.1862144470214844e+00</stageThreshold>
      <weakClassifiers>
        <_>
          <internalNodes>
            0 -1 43 808323091 -4273089 -1337338969 -843332467
            -1668441717 -25798567 -1680008393 -63999181</internalNodes>
          <leafValues>
            -5.1576292514801025e-01 1.2017640471458435e-01</leafValues></_>
        <_>
          <internalNodes>
            0 -1 32 1593796330 874534805 -773781207 -259964995
            1192036046 -259760481 850316014 -239522832</internalNodes>
          <leafValues>
            -4.5868489146232605e-01 2.2114929556846619e-01</leafValues></_>
        <_>
          <internalNodes>
            0 -1 11 -286006140 -1646276355 1214169131 -1468335150
            2012758384 -308397470 -203227142 -17761554</internalNodes>
          <leafValues>
            -3.7847697734832764e-01 2.8766727447509766e-01</leafValues></_>
        <_>
          <internalNodes>
            0 -1 10 -8402578 2085516230 -1741497170 -1697866611
            -836549884 1996679171 -1232834953 1416817003</internalNodes>
          <leafValues>
            -6.1718267202377319e-01 1.9170193374156952e-01</leafValues></_>
        <_>
          <internalNodes>
            0 -1 99 -80882217 -753933824 -2120646573 -100008173
            440292811 -751532148 -1138790989 -1852921153</internalNodes>
          <leafValues>
            -3.3906808495521545e-01 3.2007724046707153e-01</leafValues></_>
        <_>
          <internalNodes>
            0 -1 114 -1164239049 -1319690369 511174557 2146858109
            -1619196567 -1107379458 -1734826789 -1433741892</internalNodes>
          <leafValues>
            -2.8057187795639038e-01 4.0786615014076233e-01</leafValues></_>
        <_>
          <internalNodes>
            0 -1 85 -50189 -344509644 -1228947525 -146803779 -29425989
            -1262767177 1906552571 -38813553</internalNodes>
          <leafValues>
            -2.4457646906375885e-01 4.8243367671966553e-01</leafValues></_>
        <_>
          <internalNodes>
            0 -1 88 -14741543 839352586 1930635698 -1789405298
            -1731750417 72097117 1426900942 1122539436</internalNodes>
          <leafValues>
            -4.3604889512062073e-01 2.8554517030715942e-01</leafValues></_>
        <_>
          <internalNodes>
            0 -1 60 -231614383 2111172679 -591312421 895314521
            -527789320 -162512688 -1555974005 974311455</internalNodes>
          <leafValues>
            -3.1785777211189270e-01 3.6378997564315796e-01</leafValues></_>
        <_>
          <internalNodes>
            0 -1 16 -792467871 1409762531 1963853187 1347375202
            -1799104447 -2134157654 156006165 1080128244</internalNodes>
          <leafValues>
            -5.5445545911788940e-01 2.1239209175109863e-01</leafValues></_></weakClassifiers></_>
    <!-- stage 14 -->
    <_>
      <maxWeakCount>12</maxWeakCount>
      <stageThreshold>-8.9894205331802368e-01</stageThreshold>
      <weakClassifiers>
        <_>
          <internalNodes>
            0 -1 96 1029259263 2034724731 -723648930 2095005243
            -972962097 2078721161 -360130984 -6309214</internalNodes>
          <leafValues>
            -5.4490458965301514e-01 9.1833278536796570e-02</leafValues></_>
        <_>
          <internalNodes>
            0 -1 4 -289419510 -336606706 -144408576 -195500030
            -758231225 -98355157 -697849 -227055789</internalNodes>
          <leafValues>
            -3.8083630800247192e-01 2.6123633980751038e-01</leafValues></_>
        <_>
          <internalNodes>
            0 -1 120 -1027874823 -150997065 871829329 1790916912
            -545842089 -984121995 -403473035 -167783121</internalNodes>
          <leafValues>
            -2.5744587182998657e-01 4.0497237443923950e-01</leafValues></_>
        <_>
          <internalNodes>
            0 -1 64 -715336482 -216952823 1963290463 1574244496
            -1668884230 -1902341268 808893103 487430543</internalNodes>
          <leafValues>
            -4.2302194237709045e-01 2.5000858306884766e-01</leafValues></_>
        <_>
          <internalNodes>
            0 -1 106 -1433802086 755376566 554188832 1113153226
            776752314 1166016629 1410784426 1691834538</internalNodes>
          <leafValues>
            -4.4006606936454773e-01 2.4600243568420410e-01</leafValues></_>
        <_>
          <internalNodes>
            0 -1 70 1358976240 -207760934 991367819 903134315 -191522406
            -1045351549 917146527 692546384</internalNodes>
          <leafValues>
            -4.0420708060264587e-01 2.6826938986778259e-01</leafValues></_>
        <_>
          <internalNodes>
            0 -1 0 -1356689513 -292892535 2017456747 -17124616
            1702231279 -371424869 1604804709 -285978400</internalNodes>
          <leafValues>
            -3.6823022365570068e-01 2.8261935710906982e-01</leafValues></_>
        <_>
          <internalNodes>
            0 -1 9 -839028906 -1811830133 2073501459 -863842032 19011668
            1065535753 1990352347 277265163</internalNodes>
          <leafValues>
            -5.6786078214645386e-01 2.0123076438903809e-01</leafValues></_>
        <_>
          <internalNodes>
            0 -1 39 2121909994 -356209054 984548881 -1091629765
            -126383453 -246382725 -391250980 -155223128</internalNodes>
          <leafValues>
            -3.2997813820838928e-01 3.5121816396713257e-01</leafValues></_>
        <_>
          <internalNodes>
            0 -1 36 -955122229 -762726117 -868190003 248520628
            -859189621 104912211 -1936732756 225124542</internalNodes>
          <leafValues>
            -5.1073199510574341e-01 2.1444320678710938e-01</leafValues></_>
        <_>
          <internalNodes>
            0 -1 80 -523373384 -11288745 1878746415 -1781031672 4777672
            -97401840 928567179 -1459541930</internalNodes>
          <leafValues>
            -3.1776282191276550e-01 3.7954375147819519e-01</leafValues></_>
        <_>
          <internalNodes>
            0 -1 91 -700056090 -749217304 328310954 117509386 -901674856
            303958706 320865162 2131579642</internalNodes>
          <leafValues>
            -3.7884518504142761e-01 3.1183287501335144e-01</leafValues></_></weakClassifiers></_></stages>
  <features>
    <_>
      <rect>
        0 0 4 5</rect></_>
    <_>
      <rect>
        0 17 7 7</rect></_>
    <_>
      <rect>
        0 19 5 9</rect></_>
    <_>
      <rect>
        0 21 3 9</rect></_>
    <_>
      <rect>
        0 22 2 3</rect></_>
    <_>
      <rect>
        0 23 5 4</rect></_>
    <_>
      <rect>
        0 24 6 5</rect></_>
    <_>
      <rect>
        0 25 6 4</rect></_>
    <_>
      <rect>
        0 28 9 6</rect></_>
    <_>
      <rect>
        0 29 11 6</rect></_>
    <_>
      <rect>
        0 31 7 2</rect></_>
    <_>
      <rect>
        0 35 5 5</rect></_>
    <_>
      <rect>
        1 8 15 6</rect></_>
    <_>
      <rect>
        1 26 7 6</rect></_>
    <_>
      <rect>
        1 26 8 8</rect></_>
    <_>
      <rect>
        1 26 9 5</rect></_>
    <_>
      <rect>
        2 11 5 8</rect></_>
    <_>
      <rect>
        2 13 16 5</rect></_>
    <_>
      <rect>
        2 23 3 9</rect></_>
    <_>
      <rect>
        2 29 15 7</rect></_>
    <_>
      <rect>
        2 35 4 2</rect></_>
    <_>
      <rect>
        3 6 15 11</rect></_>
    <_>
      <rect>
        3 8 13 6</rect></_>
    <_>
      <rect>
        3 10 7 8</rect></_>
    <_>
      <rect>
        3 11 6 6</rect></_>
    <_>
      <rect>
        4 19 8 5</rect></_>
    <_>
      <rect>
        4 27 15 7</rect></_>
    <_>
      <rect>
        5 5 9 5</rect></_>
    <_>
      <rect>
        5 11 9 11</rect></_>
    <_>
      <rect>
        5 13 11 11</rect></_>
    <_>
      <rect>
        5 14 8 7</rect></_>
    <_>
      <rect>
        5 16 10 7</rect></_>
    <_>
      <rect>
        5 18 7 5</rect></_>
    <_>
      <rect>
        6 0 10 6</rect></_>
    <_>
      <rect>
        6 5 9 10</rect></_>
    <_>
      <rect>
        6 9 8 5</rect></_>
    <_>
      <rect>
        6 10 10 10</rect></_>
    <_>
      <rect>
        7 15 6 5</rect></_>
    <_>
      <rect>
        7 21 6 5</rect></_>
    <_>
      <rect>
        7 22 5 4</rect></_>
    <_>
      <rect>
        7 22 7 3</rect></_>
    <_>
      <rect>
        8 8 14 9</rect></_>
    <_>
      <rect>
        8 13 6 7</rect></_>
    <_>
      <rect>
        8 25 12 5</rect></_>
    <_>
      <rect>
        8 25 13 7</rect></_>
    <_>
      <rect>
        8 32 11 6</rect></_>
    <_>
      <rect>
        9 25 12 8</rect></_>
    <_>
      <rect>
        9 32 12 3</rect></_>
    <_>
      <rect>
        9 38 2 1</rect></_>
    <_>
      <rect>
        9 40 7 3</rect></_>
    <_>
      <rect>
        10 22 12 7</rect></_>
    <_>
      <rect>
        10 30 5 6</rect></_>
    <_>
      <rect>
        11 8 8 4</rect></_>
    <_>
      <rect>
        11 8 10 11</rect></_>
    <_>
      <rect>
        11 17 11 8</rect></_>
    <_>
      <rect>
        11 27 5 3</rect></_>
    <_>
      <rect>
        12 3 9 10</rect></_>
    <_>
      <rect>
        12 5 8 4</rect></_>
    <_>
      <rect>
        12 9 11 3</rect></_>
    <_>
      <rect>
        12 24 11 5</rect></_>
    <_>
      <rect>
        12 31 9 3</rect></_>
    <_>
      <rect>
        13 0 6 5</rect></_>
    <_>
      <rect>
        13 16 10 4</rect></_>
    <_>
      <rect>
        14 3 9 6</rect></_>
    <_>
      <rect>
        14 8 12 7</rect></_>
    <_>
      <rect>
        14 19 8 5</rect></_>
    <_>
      <rect>
        15 5 7 11</rect></_>
    <_>
      <rect>
        15 16 9 6</rect></_>
    <_>
      <rect>
        15 25 6 4</rect></_>
    <_>
      <rect>
        15 31 8 4</rect></_>
    <_>
      <rect>
        15 33 7 4</rect></_>
    <_>
      <rect>
        16 9 11 6</rect></_>
    <_>
      <rect>
        16 16 10 10</rect></_>
    <_>
      <rect>
        16 25 6 4</rect></_>
    <_>
      <rect>
        16 36 7 4</rect></_>
    <_>
      <rect>
        17 3 6 4</rect></_>
    <_>
      <rect>
        17 16 5 11</rect></_>
    <_>
      <rect>
        17 18 11 5</rect></_>
    <_>
      <rect>
        17 20 10 6</rect></_>
    <_>
      <rect>
        17 30 7 2</rect></_>
    <_>
      <rect>
        18 28 3 2</rect></_>
    <_>
      <rect>
        19 2 7 6</rect></_>
    <_>
      <rect>
        19 17 9 8</rect></_>
    <_>
      <rect>
        19 19 9 4</rect></_>
    <_>
      <rect>
        19 21 9 5</rect></_>
    <_>
      <rect>
        20 12 9 7</rect></_>
    <_>
      <rect>
        20 15 8 6</rect></_>
    <_>
      <rect>
        20 16 10 5</rect></_>
    <_>
      <rect>
        20 17 10 6</rect></_>
    <_>
      <rect>
        20 20 4 3</rect></_>
    <_>
      <rect>
        20 22 3 2</rect></_>
    <_>
      <rect>
        20 24 3 2</rect></_>
    <_>
      <rect>
        20 29 10 4</rect></_>
    <_>
      <rect>
        21 14 6 12</rect></_>
    <_>
      <rect>
        22 21 3 4</rect></_>
    <_>
      <rect>
        22 26 6 3</rect></_>
    <_>
      <rect>
        23 15 4 11</rect></_>
    <_>
      <rect>
        23 15 6 4</rect></_>
    <_>
      <rect>
        23 29 2 3</rect></_>
    <_>
      <rect>
        24 11 6 10</rect></_>
    <_>
      <rect>
        24 12 6 9</rect></_>
    <_>
      <rect>
        25 9 8 8</rect></_>
    <_>
      <rect>
        25 26 4 4</rect></_>
    <_>
      <rect>
        26 25 4 3</rect></_>
    <_>
      <rect>
        27 20 6 4</rect></_>
    <_>
      <rect>
        27 22 4 4</rect></_>
    <_>
      <rect>
        28 19 2 6</rect></_>
    <_>
      <rect>
        28 27 6 6</rect></_>
    <_>
      <rect>
        29 4 7 10</rect></_>
    <_>
      <rect>
        29 16 5 6</rect></_>
    <_>
      <rect>
        29 17 5 5</rect></_>
    <_>
      <rect>
        29 18 7 6</rect></_>
    <_>
      <rect>
        29 21 3 5</rect></_>
    <_>
      <rect>
        29 26 7 7</rect></_>
    <_>
      <rect>
        29 43 2 1</rect></_>
    <_>
      <rect>
        30 17 5 7</rect></_>
    <_>
      <rect>
        32 15 6 8</rect></_>
    <_>
      <rect>
        34 25 5 6</rect></_>
    <_>
      <rect>
        35 3 4 6</rect></_>
    <_>
      <rect>
        35 20 5 8</rect></_>
    <_>
      <rect>
        35 22 4 5</rect></_>
    <_>
      <rect>
        38 13 4 11</rect></_>
    <_>
      <rect>
        43 28 2 7</rect></_>
    <_>
      <rect>
        44 16 2 3</rect></_>
    <_>
      <rect>
        44 27 2 5</rect></_>
    <_>
      <rect>
        47 30 1 1</rect></_></features></cascade>
</opencv_storage>
